<?xml version="1.0"?>
<opencv_storage>
<my_nn type_id="opencv-ml-ann-mlp">
  <layer_sizes type_id="opencv-matrix">
    <rows>1</rows>
    <cols>3</cols>
    <dt>i</dt>
    <data>
      23 4 3</data></layer_sizes>
  <activation_function>SIGMOID_SYM</activation_function>
  <f_param1>1.</f_param1>
  <f_param2>1.</f_param2>
  <min_val>-9.4999999999999996e-01</min_val>
  <max_val>9.4999999999999996e-01</max_val>
  <min_val1>-9.7999999999999998e-01</min_val1>
  <max_val1>9.7999999999999998e-01</max_val1>
  <training_params>
    <train_method>BACKPROP</train_method>
    <dw_scale>5.0000000000000003e-02</dw_scale>
    <moment_scale>5.0000000000000003e-02</moment_scale>
    <term_criteria><epsilon>1.0000000000000000e-03</epsilon>
      <iterations>10000</iterations></term_criteria></training_params>
  <input_scale>
    6.1636660070066220e+00 -8.7837787464883632e-01
    2.4948733070318504e+01 -1.2681040633968005e+01
    1.0863985088074481e+00 3.0016764411616874e+00 2.6330698851597013e-04
    -1.2265710346709799e+00 9.7559672184036062e-08
    -1.6036738121252252e+00 1.0657209005683975e-01
    -7.4707444120059774e-01 1.5311712207940898e-03
    -3.9411688534414302e-01 3.4325361885714056e-02
    -7.7731926802971296e-01 2.7629937226002252e-02
    -6.3091926574658996e-01 1.0436618850585578e-02
    -4.3519785338227290e-01 6.9275134660918133e-03
    6.1758384187878255e+00 9.8670693012960272e-03
    -2.8927280172311370e-01 2.3871840319592351e-02
    -8.9604720036396313e-01 3.2168389040820491e-02
    -1.1275709891136749e+00 3.8239120720647002e-02
    -8.7493519472718573e-01 5.2158322024578339e-02
    -1.1025422755668941e+00 5.6301377479543967e-02
    -6.5881506643448873e-01 7.1584759791543537e-02
    -7.9020313912076945e-01 7.4332537874947910e-02
    -4.1859552820322415e-01 8.7536720853663513e-02
    -4.7632899599216061e-01 9.1507606836025074e-02
    -2.5792097589251251e-01 1.0079103864088697e-01
    -2.1094240058298927e-01 1.0686311762913933e-01
    -7.5629064168616714e-02</input_scale>
  <output_scale>
    1.0526315789473684e+00 0. 1.0526315789473684e+00 0.
    1.0526315789473684e+00 0.</output_scale>
  <inv_output_scale>
    9.4999999999999996e-01 0. 9.4999999999999996e-01 0.
    9.4999999999999996e-01 0.</inv_output_scale>
  <weights>
    <_>
      -4.4413097958824882e-01 4.6013832715234687e-01
      3.1846432162663446e-01 6.0461597716402449e-01
      -1.4964006869073727e+00 -8.6233306603942583e-01
      5.5017585057215890e-01 5.1243708632865437e-01
      6.6893643905541378e-01 4.5616904551443566e-01
      -7.1325769009905143e-02 2.8566626344684287e-01
      -9.0460304881246900e-02 2.5779883410797610e-01
      6.9295273790987155e-01 6.2469747219270966e-01
      3.3888159393703030e+00 5.9490369184748937e-01
      -9.1783294270827243e-01 -6.3053328390882490e-01
      -2.3648667376515746e+00 -1.1594410128925836e+00
      2.3269844690693292e-01 -6.3684276355862032e-02
      -1.2576935503479201e+00 -5.6086938414411902e-01
      -4.5140416937424467e-02 -1.7515393032715187e-01
      1.5290235553914759e+00 -3.3773230781477051e-02
      -1.3402015276077688e+00 -1.1395163667142119e+00
      3.7004800957642900e+00 4.2032182284609593e-01
      -1.1792514749040237e+00 -3.6786756221972566e-01
      -1.1819417063920294e+00 8.5438176471723040e-02
      9.4399143494817994e-01 8.2798021205432448e-01
      2.1444977340189499e+00 6.7496876610311596e-01
      -4.9674957504817618e-01 -1.5902738795949067e-01
      -4.2155017126582461e-01 -1.2551102059803105e+00
      -1.3430160438963219e+00 -1.4691421696551623e+00
      -3.3187791785955105e+00 -9.6318521821287806e-01
      7.4655422951381034e-01 1.7177130688858627e-01
      -4.6771095184691018e-02 1.3624814382485738e-02
      9.9348767088840884e-02 -1.1246587718465759e-01
      1.2225828578413180e+00 1.0310748120593263e-01
      -1.2215036887685842e+00 -8.9657337455481978e-01
      6.4487894938686660e-02 -1.4540506985061616e-01
      -2.8460686736299046e-01 -2.2916918110136350e-01
      -6.1044142173734006e-01 -2.4213817520189398e-01
      -2.3340678964284267e-01 -5.7151340883089152e-02
      -9.7091799995307249e-01 -4.2679376002719910e-01
      -3.3952013026209232e-01 -1.9738549624439200e-01
      -1.9778094627895142e+00 -4.5931013057805892e-01
      2.5710504890117053e-01 9.9970596502254386e-02
      -2.3530151522432883e+00 -3.5383172602891222e-01
      3.3816813680374164e-01 3.3311130030541491e-01
      -2.6973553410779085e+00 -4.8112390181319387e-01
      3.3396644825901206e-01 4.0074592406571663e-01
      -1.9922090611015766e+00 -5.9881265632419099e-02
      1.4173736315165669e-01 3.3292912926058088e-01
      -1.3326408303707833e+00 1.3268641252386340e-01
      -4.2941056802173933e-01 -1.6033911593646305e-01
      7.6721250481412054e-02 5.8572151353402024e-01
      -7.2201684746175543e-01 -1.0707416086348815e+00</_>
    <_>
      -1.0445015379937073e+00 7.4972321055513058e-01
      -4.8748601421360233e-01 -2.4739770570839448e+00
      2.2490192555288764e+00 1.0193287491436083e+00
      2.9375961683619339e-01 -1.9416839657670770e+00
      1.9376993079998168e+00 -1.3425967583347369e+00
      -1.3330361656363430e+00 1.8549567946695604e+00
      -9.8530060395883590e-01 -2.6129937058265704e+00
      -9.5935482031228747e-01</_></weights></my_nn>
</opencv_storage>
